svm_type c_svc
kernel_type polynomial
degree 3
gamma 0.3333333333333333
coef0 0.0
nr_class 3
total_sv 22
rho 1.510762214949189 3.6348541823245704 1.1563366468488596
label 1 2 0
nr_sv 7 7 8
SV
4.32101323651697E-5 0.0 1:0.0 2:-98.1733 3:173.332 
0.0012990304939012865 5.7102012382197775E-5 1:1.0 2:4.4097 3:57.2466 
9.425790635412523E-4 0.0 1:0.0 2:-48.5679 3:31.71024 
0.001952185734592882 0.0 1:1.0 2:51.3524 3:67.9441 
8.278720624644724E-6 3.3236341507769737E-7 1:2.0 2:-112.279 3:-107.604 
0.004008738370607919 4.279693260244566E-6 1:0.0 2:-46.4006 3:43.67112 
0.022682341527777452 0.0 1:1.0 2:38.20524 3:43.6387 
-3.757655225852216E-5 0.0 1:1.0 2:-166.008 3:105.015 
-0.009531830044374592 0.0 1:1.0 2:44.7089 3:50.7137 
-0.005239826258986237 0.0 1:0.0 2:-39.9654 3:49.2186 
-0.016127131187790546 8.156933676505085E-5 1:1.0 2:33.8022 3:44.3638 
-0.0 3.612246116383847E-4 1:0.0 2:-14.4111 3:43.6409 
-0.0 2.947042414236437E-4 1:0.0 2:-51.81 3:-10.1023 
-0.0 2.0202411188981268E-4 1:2.0 2:10.0565 3:-53.2779 
-0.0 -3.7323690359775883E-4 1:0.0 2:-42.819 3:-1.962 
-4.1256209800211064E-5 -0.0 1:1.0 2:0.038 3:57.9112 
-1.4509175256895841E-5 -0.0 1:1.0 2:0.167085 3:57.3306 
-0.0 -2.2171358922245981E-4 1:2.0 2:2.922 3:-42.161 
-6.131041358954318E-7 -0.0 1:2.0 2:0.546877 3:-53.0794 
-5.335579864517661E-6 -0.0 1:0.0 2:-55.103 3:0.8878 
-0.0 -7.561206810912745E-5 1:0.0 2:-49.9258 3:-1.74482 
-0.0 -2.6895974078751655E-4 1:1.0 2:-2.60546 3:43.9984 
